Language model created by QuickLM on Thu Dec 10 07:28:37 EST 2020
Copyright (c) 1996-2010 Carnegie Mellon University and Alexander I. Rudnicky

The model is in standard ARPA format, designed by Doug Paul while he was at MITRE.

The code that was used to produce this language model is available in Open Source.
Please visit http://www.speech.cs.cmu.edu/tools/ for more information

The (fixed) discount mass is 0.5. The backoffs are computed using the ratio method.
This model based on a corpus of 37 sentences and 70 words

\data\
ngram 1=70
ngram 2=121
ngram 3=111

\1-grams:
-1.0206 </s> -0.3010
-1.0206 <s> -0.2513
-2.5888 A -0.2999
-2.5888 ARE -0.2954
-2.5888 ARTIFICIAL -0.2999
-2.5888 AWESOME -0.2575
-2.2878 BROWSER -0.2575
-2.2878 CALCULATOR -0.2575
-2.2878 CAN -0.2954
-2.5888 CAPTURE -0.2999
-1.8899 CLOSE -0.2908
-2.5888 COMPUTER -0.2575
-2.5888 CONTROL -0.2575
-2.5888 CREATOR -0.2575
-2.5888 DATE -0.2575
-1.9868 DO -0.2931
-2.5888 FOR -0.2977
-2.2878 GO -0.2977
-2.5888 GOOD -0.2575
-2.5888 GOOGLE -0.2575
-2.5888 GREAT -0.2575
-2.5888 HELLO -0.2988
-2.5888 HI -0.2988
-2.2878 HOW -0.2862
-2.5888 I -0.2965
-2.5888 INTELLIGENCE -0.2575
-1.5097 IS -0.2874
-2.5888 IT -0.2999
-2.5888 JAVA -0.2575
-2.5888 JOKE -0.2575
-2.2878 KNOW -0.2450
-2.5888 LEARN -0.2999
-2.2878 LINA -0.2575
-2.2878 LOVE -0.2575
-2.5888 MACHINE -0.2575
-2.1117 ME -0.2550
-2.5888 MORE -0.2575
-2.2878 MUSIC -0.2988
-2.5888 NAME -0.2575
-2.5888 NOT -0.2988
-2.2878 NOTEPAD -0.2575
-2.5888 NOW -0.2575
-2.2878 OK -0.2874
-1.9868 OPEN -0.2920
-2.5888 PLAYE -0.2575
-2.5888 PLAYER -0.2575
-2.5888 SCREENSHOT -0.2575
-2.5888 SHUTDOWN -0.2575
-2.5888 SOMETHING -0.2988
-2.5888 SORRY -0.2575
-2.2878 TELL -0.2977
-2.2878 THAT -0.2862
-2.5888 THE -0.2999
-2.5888 TIME -0.2874
-2.1117 TO -0.2977
-2.5888 TODAY -0.2575
-2.5888 TODAYS -0.2999
-2.5888 UP -0.2575
-2.5888 VERSION -0.2999
-2.5888 VERY -0.2999
-2.5888 WANT -0.2977
-2.5888 WEATHER -0.2999
-1.5888 WHAT -0.2839
-2.5888 WHATS -0.2999
-2.5888 WHO -0.2874
-2.5888 WINDOW -0.2575
-2.5888 WOW -0.2988
-1.8899 YOU -0.2462
-2.2878 YOUR -0.2988
-2.5888 YOUTUBE -0.2575

\2-grams:
-1.8692 <s> AWESOME 0.0000
-1.8692 <s> CAN 0.0000
-1.8692 <s> CAPTURE 0.0000
-1.1703 <s> CLOSE 0.0000
-1.5682 <s> DO -0.1761
-1.5682 <s> GO 0.0000
-1.8692 <s> GREAT 0.0000
-1.8692 <s> HELLO 0.0000
-1.8692 <s> HI 0.0000
-1.5682 <s> HOW 0.0000
-1.5682 <s> OK 0.0000
-1.2672 <s> OPEN 0.0000
-1.8692 <s> SHUTDOWN 0.0000
-1.8692 <s> SORRY 0.0000
-1.8692 <s> TODAYS 0.0000
-0.9661 <s> WHAT 0.0000
-1.8692 <s> WHATS 0.0000
-1.8692 <s> WHO 0.0000
-1.8692 <s> WOW 0.0000
-0.3010 A JOKE 0.0000
-0.3010 ARE YOU -0.2553
-0.3010 ARTIFICIAL INTELLIGENCE 0.0000
-0.3010 AWESOME </s> -0.3010
-0.3010 BROWSER </s> -0.3010
-0.3010 CALCULATOR </s> -0.3010
-0.3010 CAN YOU -0.2041
-0.3010 CAPTURE SCREENSHOT 0.0000
-1.0000 CLOSE BROWSER 0.0000
-1.0000 CLOSE CALCULATOR 0.0000
-1.0000 CLOSE MUSIC -0.1761
-1.0000 CLOSE NOTEPAD 0.0000
-1.0000 CLOSE WINDOW 0.0000
-0.3010 COMPUTER </s> -0.3010
-0.3010 CONTROL </s> -0.3010
-0.3010 CREATOR </s> -0.3010
-0.3010 DATE </s> -0.3010
-0.9031 DO FOR 0.0000
-0.9031 DO NOT 0.0000
-0.6021 DO YOU -0.2041
-0.3010 FOR ME -0.2218
-0.3010 GO TO -0.1249
-0.3010 GOOD </s> -0.3010
-0.3010 GOOGLE </s> -0.3010
-0.3010 GREAT </s> -0.3010
-0.3010 HELLO LINA 0.0000
-0.3010 HI LINA 0.0000
-0.6021 HOW ARE 0.0000
-0.6021 HOW IS -0.2825
-0.3010 I DO -0.2430
-0.3010 INTELLIGENCE </s> -0.3010
-1.3802 IS ARTIFICIAL 0.0000
-1.3802 IS COMPUTER 0.0000
-1.3802 IS IT 0.0000
-1.3802 IS JAVA 0.0000
-1.0792 IS LOVE 0.0000
-1.3802 IS MACHINE 0.0000
-1.3802 IS THE 0.0000
-1.3802 IS VERSION 0.0000
-1.3802 IS VERY 0.0000
-1.0792 IS YOUR 0.0000
-0.3010 IT NOW 0.0000
-0.3010 JAVA </s> -0.3010
-0.3010 JOKE </s> -0.3010
-0.6021 KNOW </s> -0.3010
-0.6021 KNOW WHAT -0.0792
-0.3010 LEARN MORE 0.0000
-0.3010 LINA </s> -0.3010
-0.3010 LOVE </s> -0.3010
-0.3010 MACHINE </s> -0.3010
-0.7782 ME </s> -0.3010
-0.7782 ME A 0.0000
-0.7782 ME SOMETHING 0.0000
-0.3010 MORE </s> -0.3010
-0.6021 MUSIC PLAYE 0.0000
-0.6021 MUSIC PLAYER 0.0000
-0.3010 NAME </s> -0.3010
-0.3010 NOT KNOW -0.1761
-0.3010 NOTEPAD </s> -0.3010
-0.3010 NOW </s> -0.3010
-0.6021 OK TELL 0.0000
-0.6021 OK WHAT -0.0792
-0.9031 OPEN BROWSER 0.0000
-0.9031 OPEN CALCULATOR 0.0000
-0.9031 OPEN MUSIC -0.1761
-0.9031 OPEN NOTEPAD 0.0000
-0.3010 PLAYE </s> -0.3010
-0.3010 PLAYER </s> -0.3010
-0.3010 SCREENSHOT </s> -0.3010
-0.3010 SHUTDOWN </s> -0.3010
-0.3010 SOMETHING THAT -0.1761
-0.3010 SORRY </s> -0.3010
-0.3010 TELL ME -0.1249
-0.6021 THAT I 0.0000
-0.6021 THAT IS -0.2825
-0.3010 THE WEATHER 0.0000
-0.3010 TIME IS -0.2825
-0.7782 TO GOOGLE 0.0000
-0.7782 TO LEARN 0.0000
-0.7782 TO YOUTUBE 0.0000
-0.3010 TODAY </s> -0.3010
-0.3010 TODAYS DATE 0.0000
-0.3010 UP </s> -0.3010
-0.3010 VERSION CONTROL 0.0000
-0.3010 VERY GOOD 0.0000
-0.3010 WANT TO -0.2218
-0.3010 WEATHER TODAY 0.0000
-1.3010 WHAT CAN 0.0000
-0.3979 WHAT IS -0.0969
-1.3010 WHAT TIME 0.0000
-0.3010 WHATS UP 0.0000
-0.3010 WHO IS -0.2632
-0.3010 WINDOW </s> -0.3010
-0.3010 WOW THAT -0.1761
-1.0000 YOU </s> -0.3010
-1.0000 YOU DO -0.2430
-1.0000 YOU KNOW -0.1761
-1.0000 YOU TELL 0.0000
-1.0000 YOU WANT 0.0000
-0.6021 YOUR CREATOR 0.0000
-0.6021 YOUR NAME 0.0000
-0.3010 YOUTUBE </s> -0.3010

\3-grams:
-0.3010 <s> AWESOME </s>
-0.3010 <s> CAN YOU
-0.3010 <s> CAPTURE SCREENSHOT
-1.0000 <s> CLOSE BROWSER
-1.0000 <s> CLOSE CALCULATOR
-1.0000 <s> CLOSE MUSIC
-1.0000 <s> CLOSE NOTEPAD
-1.0000 <s> CLOSE WINDOW
-0.3010 <s> DO YOU
-0.3010 <s> GO TO
-0.3010 <s> GREAT </s>
-0.3010 <s> HELLO LINA
-0.3010 <s> HI LINA
-0.6021 <s> HOW ARE
-0.6021 <s> HOW IS
-0.6021 <s> OK TELL
-0.6021 <s> OK WHAT
-0.9031 <s> OPEN BROWSER
-0.9031 <s> OPEN CALCULATOR
-0.9031 <s> OPEN MUSIC
-0.9031 <s> OPEN NOTEPAD
-0.3010 <s> SHUTDOWN </s>
-0.3010 <s> SORRY </s>
-0.3010 <s> TODAYS DATE
-1.2041 <s> WHAT CAN
-0.4260 <s> WHAT IS
-1.2041 <s> WHAT TIME
-0.3010 <s> WHATS UP
-0.3010 <s> WHO IS
-0.3010 <s> WOW THAT
-0.3010 A JOKE </s>
-0.3010 ARE YOU </s>
-0.3010 ARTIFICIAL INTELLIGENCE </s>
-0.6021 CAN YOU DO
-0.6021 CAN YOU TELL
-0.3010 CAPTURE SCREENSHOT </s>
-0.3010 CLOSE BROWSER </s>
-0.3010 CLOSE CALCULATOR </s>
-0.3010 CLOSE MUSIC PLAYE
-0.3010 CLOSE NOTEPAD </s>
-0.3010 CLOSE WINDOW </s>
-0.3010 DO FOR ME
-0.3010 DO NOT KNOW
-0.6021 DO YOU KNOW
-0.6021 DO YOU WANT
-0.3010 FOR ME </s>
-0.6021 GO TO GOOGLE
-0.6021 GO TO YOUTUBE
-0.3010 HELLO LINA </s>
-0.3010 HI LINA </s>
-0.3010 HOW ARE YOU
-0.3010 HOW IS THE
-0.3010 I DO NOT
-0.3010 IS ARTIFICIAL INTELLIGENCE
-0.3010 IS COMPUTER </s>
-0.3010 IS IT NOW
-0.3010 IS JAVA </s>
-0.3010 IS LOVE </s>
-0.3010 IS MACHINE </s>
-0.3010 IS THE WEATHER
-0.3010 IS VERSION CONTROL
-0.3010 IS VERY GOOD
-0.6021 IS YOUR CREATOR
-0.6021 IS YOUR NAME
-0.3010 IT NOW </s>
-0.3010 KNOW WHAT IS
-0.3010 LEARN MORE </s>
-0.3010 ME A JOKE
-0.3010 ME SOMETHING THAT
-0.3010 MUSIC PLAYE </s>
-0.3010 MUSIC PLAYER </s>
-0.3010 NOT KNOW </s>
-0.3010 OK TELL ME
-0.3010 OK WHAT IS
-0.3010 OPEN BROWSER </s>
-0.3010 OPEN CALCULATOR </s>
-0.3010 OPEN MUSIC PLAYER
-0.3010 OPEN NOTEPAD </s>
-0.3010 SOMETHING THAT I
-0.6021 TELL ME A
-0.6021 TELL ME SOMETHING
-0.3010 THAT I DO
-0.3010 THAT IS VERY
-0.3010 THE WEATHER TODAY
-0.3010 TIME IS IT
-0.3010 TO GOOGLE </s>
-0.3010 TO LEARN MORE
-0.3010 TO YOUTUBE </s>
-0.3010 TODAYS DATE </s>
-0.3010 VERSION CONTROL </s>
-0.3010 VERY GOOD </s>
-0.3010 WANT TO LEARN
-0.3010 WEATHER TODAY </s>
-0.3010 WHAT CAN YOU
-1.2041 WHAT IS ARTIFICIAL
-1.2041 WHAT IS COMPUTER
-1.2041 WHAT IS JAVA
-0.9031 WHAT IS LOVE
-1.2041 WHAT IS MACHINE
-1.2041 WHAT IS VERSION
-1.2041 WHAT IS YOUR
-0.3010 WHAT TIME IS
-0.3010 WHATS UP </s>
-0.3010 WHO IS YOUR
-0.3010 WOW THAT IS
-0.3010 YOU DO FOR
-0.3010 YOU KNOW WHAT
-0.3010 YOU TELL ME
-0.3010 YOU WANT TO
-0.3010 YOUR CREATOR </s>
-0.3010 YOUR NAME </s>

\end\
